{
    "model.0.conv.weight": [
        [
            [
                [
                    0.00873565673828125,
                    -0.062744140625,
                    -0.066650390625,
                    -0.017486572265625,
                    -0.007572174072265625,
                    -0.055206298828125
                ],
                [
                    -0.05694580078125,
                    -0.018707275390625,
                    0.047943115234375,
                    0.061767578125,
                    0.00994110107421875,
                    -0.035614013671875
                ],
                [
                    0.048797607421875,
                    0.1812744140625,
                    0.237060546875,
                    0.11199951171875,
                    -0.05731201171875,
                    -0.04205322265625
                ],
                [
                    0.10906982421875,
                    0.230224609375,
                    0.1632080078125,
                    -0.09381103515625,
                    -0.31103515625,
                    -0.14501953125
                ],
                [
                    0.1131591796875,
                    0.16552734375,
                    0.048553466796875,
                    -0.285400390625,
                    -0.3193359375,
                    -0.0204925537109375
                ],
                [
                    0.0965576171875,
                    0.08001708984375,
                    0.0109100341796875,
                    -0.152099609375,
                    -0.06805419921875,
                    0.09991455078125
                ]
            ]
        ],
        [
            [
                [
                    0.02728271484375,
                    0.005462646484375,
                    0.005496978759765625,
                    0.00848388671875,
                    -0.03155517578125,
                    0.025726318359375
                ],
                [
                    0.002185821533203125,
                    -0.006191253662109375,
                    0.02899169921875,
                    0.049041748046875,
                    -0.01776123046875,
                    -0.0137481689453125
                ],
                [
                    0.002170562744140625,
                    -0.041961669921875,
                    -0.052093505859375,
                    0.038238525390625,
                    0.0300140380859375,
                    0.0185699462890625
                ],
                [
                    0.03802490234375,
                    0.0152435302734375,
                    -0.11669921875,
                    -0.166015625,
                    -0.050506591796875,
                    0.060699462890625
                ],
                [
                    -0.01045989990234375,
                    0.029815673828125,
                    0.013916015625,
                    -0.1295166015625,
                    -0.1708984375,
                    -0.0157318115234375
                ],
                [
                    -0.0243988037109375,
                    -0.039764404296875,
                    0.040496826171875,
                    0.07220458984375,
                    -0.035430908203125,
                    -0.0252227783203125
                ]
            ]
        ],
        [
            [
                [
                    -0.0081634521484375,
                    -0.004131317138671875,
                    -0.0131072998046875,
                    -0.0294036865234375,
                    0.041961669921875,
                    0.01239013671875
                ],
                [
                    0.00791168212890625,
                    0.0097503662109375,
                    0.01788330078125,
                    -0.027801513671875,
                    -0.11822509765625,
                    0.0782470703125
                ],
                [
                    0.019744873046875,
                    -0.0867919921875,
                    -0.019500732421875,
                    0.484130859375,
                    -0.327880859375,
                    -0.0660400390625
                ],
                [
                    0.05340576171875,
                    -0.140869140625,
                    -0.40966796875,
                    0.6689453125,
                    -0.0001232624053955078,
                    -0.079345703125
                ],
                [
                    0.040130615234375,
                    0.088623046875,
                    -0.363037109375,
                    0.1058349609375,
                    0.042633056640625,
                    -0.0058441162109375
                ],
                [
                    -0.0064849853515625,
                    0.03387451171875,
                    0.021026611328125,
                    -0.0166168212890625,
                    -0.011810302734375,
                    -0.002407073974609375
                ]
            ]
        ],
        [
            [
                [
                    -0.0882568359375,
                    -0.059967041015625,
                    0.0250396728515625,
                    0.0396728515625,
                    0.05877685546875,
                    0.06524658203125
                ],
                [
                    -0.10369873046875,
                    -0.07794189453125,
                    0.0288543701171875,
                    0.05487060546875,
                    0.059814453125,
                    0.0760498046875
                ],
                [
                    -0.0865478515625,
                    -0.048919677734375,
                    0.1007080078125,
                    0.1192626953125,
                    0.10906982421875,
                    0.13427734375
                ],
                [
                    -0.0877685546875,
                    -0.045166015625,
                    0.08612060546875,
                    0.06658935546875,
                    0.031951904296875,
                    0.0771484375
                ],
                [
                    -0.09130859375,
                    -0.058319091796875,
                    0.053466796875,
                    0.03668212890625,
                    0.01186370849609375,
                    0.035369873046875
                ],
                [
                    -0.05181884765625,
                    -0.04998779296875,
                    0.0005550384521484375,
                    -0.0146942138671875,
                    0.007152557373046875,
                    0.019439697265625
                ]
            ]
        ],
        [
            [
                [
                    0.044677734375,
                    -0.0142822265625,
                    -0.2156982421875,
                    0.1546630859375,
                    0.028961181640625,
                    -0.0010633468627929688
                ],
                [
                    0.04052734375,
                    -0.15966796875,
                    0.11163330078125,
                    0.473876953125,
                    -0.2166748046875,
                    -0.061004638671875
                ],
                [
                    0.0182952880859375,
                    -0.0335693359375,
                    0.290771484375,
                    -0.1693115234375,
                    -0.460205078125,
                    0.132568359375
                ],
                [
                    -0.0157012939453125,
                    0.00615692138671875,
                    -0.057830810546875,
                    -0.309326171875,
                    0.1705322265625,
                    0.1771240234375
                ],
                [
                    -0.046356201171875,
                    0.0172576904296875,
                    -0.0242919921875,
                    0.1102294921875,
                    0.1312255859375,
                    -0.09906005859375
                ],
                [
                    0.004261016845703125,
                    0.047576904296875,
                    -0.0126495361328125,
                    -0.0021305084228515625,
                    -0.08392333984375,
                    0.0292205810546875
                ]
            ]
        ],
        [
            [
                [
                    -0.10211181640625,
                    -0.010955810546875,
                    -0.005779266357421875,
                    -0.11480712890625,
                    -0.09417724609375,
                    -0.04180908203125
                ],
                [
                    -0.0096282958984375,
                    0.029296875,
                    -0.124267578125,
                    -0.294677734375,
                    -0.1221923828125,
                    0.03900146484375
                ],
                [
                    -0.0218505859375,
                    -0.09478759765625,
                    -0.293212890625,
                    -0.370361328125,
                    -0.1099853515625,
                    0.07818603515625
                ],
                [
                    -0.0036220550537109375,
                    -0.047821044921875,
                    -0.0966796875,
                    -0.05364990234375,
                    0.061248779296875,
                    0.1279296875
                ],
                [
                    0.044647216796875,
                    0.056854248046875,
                    0.1375732421875,
                    0.200927734375,
                    0.23388671875,
                    0.1904296875
                ],
                [
                    0.0640869140625,
                    0.06427001953125,
                    0.187255859375,
                    0.2213134765625,
                    0.1895751953125,
                    0.09759521484375
                ]
            ]
        ],
        [
            [
                [
                    0.027740478515625,
                    -0.0253753662109375,
                    0.0230255126953125,
                    0.014617919921875,
                    0.038482666015625,
                    0.001163482666015625
                ],
                [
                    0.01103973388671875,
                    0.040252685546875,
                    0.05645751953125,
                    -0.0885009765625,
                    -0.06353759765625,
                    -0.034027099609375
                ],
                [
                    0.00661468505859375,
                    0.049774169921875,
                    -0.34033203125,
                    -0.256103515625,
                    0.1412353515625,
                    0.05059814453125
                ],
                [
                    0.0190887451171875,
                    -0.0721435546875,
                    -0.395751953125,
                    0.44140625,
                    0.427490234375,
                    -0.09417724609375
                ],
                [
                    0.01219940185546875,
                    -0.061370849609375,
                    0.086181640625,
                    0.59423828125,
                    -0.098388671875,
                    -0.23583984375
                ],
                [
                    0.024017333984375,
                    -0.0301361083984375,
                    0.037384033203125,
                    -0.02587890625,
                    -0.296142578125,
                    0.00047206878662109375
                ]
            ]
        ],
        [
            [
                [
                    -0.027740478515625,
                    -0.025299072265625,
                    -0.045745849609375,
                    -0.069091796875,
                    -0.0421142578125,
                    -0.01351165771484375
                ],
                [
                    0.01416015625,
                    0.0034427642822265625,
                    0.01629638671875,
                    0.07330322265625,
                    0.044586181640625,
                    -0.0445556640625
                ],
                [
                    -0.00698089599609375,
                    -0.03924560546875,
                    -0.052520751953125,
                    0.2388916015625,
                    0.3095703125,
                    0.0946044921875
                ],
                [
                    0.033721923828125,
                    -0.090087890625,
                    -0.233154296875,
                    0.06622314453125,
                    0.267578125,
                    0.1856689453125
                ],
                [
                    0.039886474609375,
                    -0.048614501953125,
                    -0.31201171875,
                    -0.2061767578125,
                    0.008392333984375,
                    0.1336669921875
                ],
                [
                    0.0179901123046875,
                    0.04290771484375,
                    -0.11322021484375,
                    -0.156005859375,
                    -0.079833984375,
                    0.0028972625732421875
                ]
            ]
        ],
        [
            [
                [
                    0.04669189453125,
                    -0.007770538330078125,
                    -0.018280029296875,
                    0.0022487640380859375,
                    -0.024932861328125,
                    -0.11444091796875
                ],
                [
                    0.029022216796875,
                    -0.005035400390625,
                    -0.0278472900390625,
                    -0.061004638671875,
                    -0.0792236328125,
                    -0.09185791015625
                ],
                [
                    0.046722412109375,
                    -0.0005130767822265625,
                    -0.056121826171875,
                    -0.1636962890625,
                    -0.2132568359375,
                    -0.162353515625
                ],
                [
                    0.0309295654296875,
                    0.019439697265625,
                    0.034210205078125,
                    0.0029144287109375,
                    -0.06817626953125,
                    -0.08172607421875
                ],
                [
                    0.052276611328125,
                    0.0308837890625,
                    0.056182861328125,
                    0.07830810546875,
                    0.0005044937133789062,
                    -0.062225341796875
                ],
                [
                    0.0855712890625,
                    0.053955078125,
                    0.0260009765625,
                    0.06854248046875,
                    -0.0088348388671875,
                    -0.07403564453125
                ]
            ]
        ],
        [
            [
                [
                    -0.016021728515625,
                    -0.020294189453125,
                    0.007671356201171875,
                    -0.01776123046875,
                    0.0167083740234375,
                    -0.00812530517578125
                ],
                [
                    -0.018157958984375,
                    0.0036449432373046875,
                    0.047454833984375,
                    0.04876708984375,
                    0.08636474609375,
                    0.046051025390625
                ],
                [
                    -0.0178070068359375,
                    0.0150909423828125,
                    0.07086181640625,
                    -0.06817626953125,
                    -0.1492919921875,
                    -0.0254669189453125
                ],
                [
                    -0.033203125,
                    -0.00014770030975341797,
                    0.098876953125,
                    -0.0885009765625,
                    -0.3974609375,
                    -0.3134765625
                ],
                [
                    -0.0285797119140625,
                    -0.0039825439453125,
                    0.146240234375,
                    0.176513671875,
                    -0.02508544921875,
                    -0.1558837890625
                ],
                [
                    -0.00301361083984375,
                    -0.017669677734375,
                    0.11480712890625,
                    0.2183837890625,
                    0.194091796875,
                    0.09417724609375
                ]
            ]
        ],
        [
            [
                [
                    -0.0020389556884765625,
                    0.0019817352294921875,
                    -0.003559112548828125,
                    -0.0048675537109375,
                    -0.0268707275390625,
                    0.0361328125
                ],
                [
                    0.007293701171875,
                    -0.016357421875,
                    0.020751953125,
                    0.030487060546875,
                    -0.05267333984375,
                    -0.017913818359375
                ],
                [
                    -0.0179443359375,
                    0.041259765625,
                    -0.083984375,
                    -0.0616455078125,
                    0.4111328125,
                    -0.2469482421875
                ],
                [
                    -0.029022216796875,
                    0.12451171875,
                    -0.0863037109375,
                    -0.452392578125,
                    0.67041015625,
                    -0.219482421875
                ],
                [
                    -0.005825042724609375,
                    0.0232391357421875,
                    0.10186767578125,
                    -0.295166015625,
                    0.1922607421875,
                    -0.045196533203125
                ],
                [
                    0.0166778564453125,
                    -0.0374755859375,
                    0.0054473876953125,
                    0.07012939453125,
                    -0.041351318359375,
                    0.0030879974365234375
                ]
            ]
        ],
        [
            [
                [
                    0.0031795501708984375,
                    0.002704620361328125,
                    -0.00090789794921875,
                    0.0035152435302734375,
                    0.002025604248046875,
                    -0.0229644775390625
                ],
                [
                    -0.0082550048828125,
                    -0.0024929046630859375,
                    0.00907135009765625,
                    0.03533935546875,
                    0.078369140625,
                    -0.0186309814453125
                ],
                [
                    0.04498291015625,
                    0.026214599609375,
                    -0.1951904296875,
                    -0.43115234375,
                    -0.2083740234375,
                    0.06732177734375
                ],
                [
                    -0.044677734375,
                    -0.00555419921875,
                    0.27001953125,
                    0.2459716796875,
                    -0.03826904296875,
                    -0.0240478515625
                ],
                [
                    0.022705078125,
                    -0.01183319091796875,
                    0.2242431640625,
                    0.52490234375,
                    0.346435546875,
                    0.0266571044921875
                ],
                [
                    0.0171661376953125,
                    -0.0284881591796875,
                    -0.294677734375,
                    -0.40771484375,
                    -0.2042236328125,
                    -0.011566162109375
                ]
            ]
        ],
        [
            [
                [
                    -0.0196533203125,
                    -0.025543212890625,
                    -0.01116943359375,
                    -0.052215576171875,
                    -0.0611572265625,
                    -0.06195068359375
                ],
                [
                    -0.030029296875,
                    -0.01255035400390625,
                    0.0111846923828125,
                    -0.01331329345703125,
                    -0.01436614990234375,
                    -0.05902099609375
                ],
                [
                    0.00229644775390625,
                    0.051727294921875,
                    0.180419921875,
                    0.1710205078125,
                    0.07244873046875,
                    -0.01219940185546875
                ],
                [
                    -0.0010290145874023438,
                    0.0540771484375,
                    0.183837890625,
                    0.163330078125,
                    0.0258026123046875,
                    -0.00041413307189941406
                ],
                [
                    -0.040374755859375,
                    0.007427215576171875,
                    0.09716796875,
                    0.10565185546875,
                    0.026031494140625,
                    -0.0005750656127929688
                ],
                [
                    0.000537872314453125,
                    -0.00652313232421875,
                    0.002933502197265625,
                    -0.0035572052001953125,
                    -0.02642822265625,
                    -0.08184814453125
                ]
            ]
        ],
        [
            [
                [
                    -0.0188140869140625,
                    -0.003986358642578125,
                    0.04425048828125,
                    0.0889892578125,
                    0.0992431640625,
                    -0.0169219970703125
                ],
                [
                    0.064208984375,
                    0.02532958984375,
                    -0.1783447265625,
                    -0.37548828125,
                    -0.1771240234375,
                    0.07232666015625
                ],
                [
                    -0.045654296875,
                    -0.0347900390625,
                    0.142822265625,
                    0.1512451171875,
                    -0.03424072265625,
                    -0.040771484375
                ],
                [
                    -0.01544189453125,
                    0.00022029876708984375,
                    0.240966796875,
                    0.431884765625,
                    0.251708984375,
                    0.005954742431640625
                ],
                [
                    0.049896240234375,
                    -0.0137176513671875,
                    -0.32666015625,
                    -0.427490234375,
                    -0.1741943359375,
                    0.00794219970703125
                ],
                [
                    -0.0147857666015625,
                    0.026336669921875,
                    0.09454345703125,
                    0.07000732421875,
                    0.0208282470703125,
                    0.00710296630859375
                ]
            ]
        ],
        [
            [
                [
                    -0.082763671875,
                    -0.0197601318359375,
                    0.0031452178955078125,
                    -0.016265869140625,
                    0.03143310546875,
                    0.057647705078125
                ],
                [
                    -0.061370849609375,
                    0.005992889404296875,
                    -0.01025390625,
                    -0.046142578125,
                    -7.909536361694336e-05,
                    0.0020847320556640625
                ],
                [
                    -0.005542755126953125,
                    0.0287017822265625,
                    -0.071533203125,
                    -0.1474609375,
                    -0.04498291015625,
                    0.0272979736328125
                ],
                [
                    -0.007598876953125,
                    -0.01131439208984375,
                    -0.170166015625,
                    -0.184814453125,
                    0.0288543701171875,
                    0.11865234375
                ],
                [
                    -0.040435791015625,
                    -0.035064697265625,
                    -0.12255859375,
                    -0.09228515625,
                    0.101318359375,
                    0.1282958984375
                ],
                [
                    -0.041229248046875,
                    0.00472259521484375,
                    -0.00959014892578125,
                    -0.01739501953125,
                    0.08538818359375,
                    0.11187744140625
                ]
            ]
        ],
        [
            [
                [
                    0.0330810546875,
                    0.029937744140625,
                    0.1160888671875,
                    0.06341552734375,
                    0.052581787109375,
                    0.0662841796875
                ],
                [
                    0.0257568359375,
                    0.048095703125,
                    0.10247802734375,
                    0.02276611328125,
                    0.038787841796875,
                    0.053375244140625
                ],
                [
                    -0.001178741455078125,
                    0.06036376953125,
                    0.1259765625,
                    0.01308441162109375,
                    0.0088958740234375,
                    0.02703857421875
                ],
                [
                    -0.042449951171875,
                    -0.01140594482421875,
                    -0.002666473388671875,
                    -0.14794921875,
                    -0.11212158203125,
                    -0.016357421875
                ],
                [
                    -0.048004150390625,
                    -0.05767822265625,
                    -0.09954833984375,
                    -0.220703125,
                    -0.08489990234375,
                    0.0270843505859375
                ],
                [
                    -0.03497314453125,
                    -0.04644775390625,
                    -0.06658935546875,
                    -0.151611328125,
                    -0.09124755859375,
                    -0.049285888671875
                ]
            ]
        ]
    ],
    "model.0.bn.weight": [
        1.6650390625,
        1.6298828125,
        2.056640625,
        1.09375,
        1.7783203125,
        1.685546875,
        2.09375,
        1.8447265625,
        1.7900390625,
        1.8583984375,
        1.9833984375,
        2.21875,
        1.6220703125,
        1.9072265625,
        1.7900390625,
        1.5048828125
    ],
    "model.0.bn.bias": [
        1.748046875,
        -1.4677734375,
        -0.78271484375,
        0.06884765625,
        -0.908203125,
        1.84765625,
        -0.8642578125,
        1.8759765625,
        -1.0029296875,
        1.6171875,
        -0.8662109375,
        -0.787109375,
        -1.080078125,
        -0.65234375,
        -0.6240234375,
        -0.147705078125
    ],
    "model.0.bn.running_mean": [
        0.0038967132568359375,
        -0.1636962890625,
        -0.0035343170166015625,
        0.163330078125,
        0.0026454925537109375,
        0.003002166748046875,
        -0.00521087646484375,
        -0.004558563232421875,
        -0.2467041015625,
        -0.00853729248046875,
        0.0029354095458984375,
        -0.0033626556396484375,
        0.234619140625,
        -1.5616416931152344e-05,
        -0.189697265625,
        -0.138916015625
    ],
    "model.0.bn.running_var": [
        0.00958251953125,
        0.007068634033203125,
        0.0015020370483398438,
        0.01119232177734375,
        0.0008902549743652344,
        0.018829345703125,
        0.0025577545166015625,
        0.00634765625,
        0.0191497802734375,
        0.004299163818359375,
        0.0011386871337890625,
        0.0026149749755859375,
        0.015899658203125,
        0.001495361328125,
        0.01139068603515625,
        0.0108642578125
    ],
    "model.0.bn.num_batches_tracked": 6724,
    "model.1.conv.weight": [
        [
            [
                [
                    0.01525115966796875,
                    -0.0281829833984375,
                    0.0168609619140625
                ],
                [
                    0.00787353515625,
                    0.007633209228515625,
                    -0.00760650634765625
                ],
                [
                    -0.01544189453125,
                    0.037933349609375,
                    0.01128387451171875
                ]
            ],
            [
                [
                    -0.0030231475830078125,
                    0.0028228759765625,
                    0.036376953125
                ],
                [
                    -0.00696563720703125,
                    -0.00019466876983642578,
                    0.0197296142578125
                ],
                [
                    -0.0169677734375,
                    0.005878448486328125,
                    0.00858306884765625
                ]
            ],
            [
                [
                    0.031585693359375,
                    0.05926513671875,
                    0.05438232421875
                ],
                [
                    0.09820556640625,
                    0.17041015625,
                    0.1129150390625
                ],
                [
                    0.059661865234375,
                    0.11279296875,
                    0.0845947265625
                ]
            ],
            [
                [
                    -0.00902557373046875,
                    0.04473876953125,
                    0.006610870361328125
                ],
                [
                    0.0302581787109375,
                    0.053955078125,
                    0.02752685546875
                ],
                [
                    0.0821533203125,
                    0.050689697265625,
                    0.006561279296875
                ]
            ],
            [
                [
                    -0.0305633544921875,
                    -0.0333251953125,
                    0.0294036865234375
                ],
                [
                    -0.0911865234375,
                    -0.09295654296875,
                    0.0350341796875
                ],
                [
                    -0.077880859375,
                    -0.0904541015625,
                    0.0130615234375
                ]
            ],
            [
                [
                    -0.00855255126953125,
                    0.0011157989501953125,
                    0.00782012939453125
                ],
                [
                    -0.01300048828125,
                    -0.0205841064453125,
                    0.063720703125
                ],
                [
                    0.0228424072265625,
                    -0.0096893310546875,
                    0.0197296142578125
                ]
            ],
            [
                [
                    -0.09417724609375,
                    -0.08544921875,
                    0.0198822021484375
                ],
                [
                    -0.1219482421875,
                    -0.134033203125,
                    -0.008697509765625
                ],
                [
                    -0.06622314453125,
                    -0.08819580078125,
                    -0.0163116455078125
                ]
            ],
            [
                [
                    0.0259857177734375,
                    0.01515960693359375,
                    0.057891845703125
                ],
                [
                    0.01195526123046875,
                    0.07684326171875,
                    0.0175628662109375
                ],
                [
                    -0.055419921875,
                    -0.052642822265625,
                    -0.00531005859375
                ]
            ],
            [
                [
                    0.0281524658203125,
                    0.00910186767578125,
                    -0.0183563232421875
                ],
                [
                    -0.036651611328125,
                    -0.01509857177734375,
                    -0.0020084381103515625
                ],
                [
                    -0.033599853515625,
                    -0.034759521484375,
                    -0.053375244140625
                ]
            ],
            [
                [
                    -0.032196044921875,
                    0.031646728515625,
                    0.032806396484375
                ],
                [
                    -0.012481689453125,
                    -0.0082244873046875,
                    0.005229949951171875
                ],
                [
                    0.01922607421875,
                    0.0186767578125,
                    -0.022979736328125
                ]
            ],
            [
                [
                    0.04876708984375,
                    0.057342529296875,
                    0.046539306640625
                ],
                [
                    0.0889892578125,
                    0.10540771484375,
                    0.05804443359375
                ],
                [
                    0.048583984375,
                    0.06005859375,
                    0.028350830078125
                ]
            ],
            [
                [
                    0.00032782554626464844,
                    -0.0311126708984375,
                    0.036468505859375
                ],
                [
                    0.0178680419921875,
                    -0.0088653564453125,
                    0.0374755859375
                ],
                [
                    0.0277557373046875,
                    0.018890380859375,
                    -0.0001342296600341797
                ]
            ],
            [
                [
                    -0.052764892578125,
                    -0.045013427734375,
                    0.02545166015625
                ],
                [
                    0.00841522216796875,
                    -0.00342559814453125,
                    0.01535797119140625
                ],
                [
                    0.038818359375,
                    0.0330810546875,
                    -0.01727294921875
                ]
            ],
            [
                [
                    -0.0254058837890625,
                    -0.0009260177612304688,
                    0.038482666015625
                ],
                [
                    -0.0120391845703125,
                    -0.022430419921875,
                    0.06622314453125
                ],
                [
                    0.03326416015625,
                    -0.025970458984375,
                    0.04473876953125
                ]
            ],
            [
                [
                    -0.06195068359375,
                    -0.0794677734375,
                    -0.0223846435546875
                ],
                [
                    -0.034637451171875,
                    -0.06414794921875,
                    -0.01953125
                ],
                [
                    -0.01123046875,
                    -0.049713134765625,
                    -0.048370361328125
                ]
            ],
            [
                [
                    -0.08197021484375,
                    -0.077392578125,
                    0.04730224609375
                ],
                [
                    -0.08843994140625,
                    -0.09429931640625,
                    -0.061737060546875
                ],
                [
                    -0.01959228515625,
                    -0.043426513671875,
                    -0.0316162109375
                ]
            ]
        ],
        [
            [
                [
                    -0.004192352294921875,
                    -0.0418701171875,
                    0.01152801513671875
                ],
                [
                    0.007503509521484375,
                    0.055908203125,
                    0.048736572265625
                ],
                [
                    0.00849151611328125,
                    0.027099609375,
                    -0.005252838134765625
                ]
            ],
            [
                [
                    -0.0005965232849121094,
                    0.03076171875,
                    0.06494140625
                ],
                [
                    -0.027496337890625,
                    0.032501220703125,
                    0.1043701171875
                ],
                [
                    0.00923919677734375,
                    0.0465087890625,
                    0.10028076171875
                ]
            ],
            [
                [
                    0.01678466796875,
                    0.025848388671875,
                    0.0264129638671875
                ],
                [
                    0.0191802978515625,
                    0.0033721923828125,
                    -0.036590576171875
                ],
                [
                    -2.7954578399658203e-05,
                    -0.045745849609375,
                    -0.06903076171875
                ]
            ],
            [
                [
                    -0.0251922607421875,
                    0.0225067138671875,
                    -0.06060791015625
                ],
                [
                    -0.054718017578125,
                    -0.0279541015625,
                    -0.1229248046875
                ],
                [
                    -0.08349609375,
                    0.00757598876953125,
                    -0.11273193359375
                ]
            ],
            [
                [
                    -0.0030918121337890625,
                    0.0098114013671875,
                    0.0289154052734375
                ],
                [
                    0.0275421142578125,
                    0.050201416015625,
                    0.0184173583984375
                ],
                [
                    0.0164794921875,
                    -0.0024013519287109375,
                    -0.02667236328125
                ]
            ],
            [
                [
                    -0.0408935546875,
                    0.0100555419921875,
                    0.0013141632080078125
                ],
                [
                    -0.0275726318359375,
                    0.01416015625,
                    -0.0526123046875
                ],
                [
                    -0.018402099609375,
                    -0.07672119140625,
                    -0.07574462890625
                ]
            ],
            [
                [
                    -0.00980377197265625,
                    0.00010693073272705078,
                    0.016387939453125
                ],
                [
                    -0.0277557373046875,
                    -0.0294647216796875,
                    -0.020477294921875
                ],
                [
                    -0.047576904296875,
                    -0.023651123046875,
                    -0.014068603515625
                ]
            ],
            [
                [
                    -0.055694580078125,
                    0.0094146728515625,
                    -0.0018062591552734375
                ],
                [
                    -0.067138671875,
                    -0.037445068359375,
                    -0.044403076171875
                ],
                [
                    -0.0039215087890625,
                    0.02496337890625,
                    -0.0124053955078125
                ]
            ],
            [
                [
                    -0.0199127197265625,
                    -0.00418853759765625,
                    0.016204833984375
                ],
                [
                    0.01181793212890625,
                    0.04876708984375,
                    0.0938720703125
                ],
                [
                    0.0103607177734375,
                    0.07305908203125,
                    0.0953369140625
                ]
            ],
            [
                [
                    -0.0178375244140625,
                    0.037841796875,
                    0.01044464111328125
                ],
                [
                    -0.034576416015625,
                    -0.0293121337890625,
                    -0.0243377685546875
                ],
                [
                    0.005340576171875,
                    -0.026641845703125,
                    -0.006866455078125
                ]
            ],
            [
                [
                    0.01300048828125,
                    0.040130615234375,
                    0.038665771484375
                ],
                [
                    0.004878997802734375,
                    -0.0176239013671875,
                    -0.01430511474609375
                ],
                [
                    -0.01432037353515625,
                    -0.06378173828125,
                    -0.0222320556640625
                ]
            ],
            [
                [
                    -0.0011625289916992188,
                    0.0214691162109375,
                    -0.01003265380859375
                ],
                [
                    0.029022216796875,
                    -0.01336669921875,
                    -0.0352783203125
                ],
                [
                    0.034820556640625,
                    -0.0231781005859375,
                    -0.012542724609375
                ]
            ],
            [
                [
                    0.0838623046875,
                    0.0699462890625,
                    0.0092926025390625
                ],
                [
                    0.11309814453125,
                    0.04522705078125,
                    -0.00859832763671875
                ],
                [
                    0.051849365234375,
                    -0.03582763671875,
                    -0.0273284912109375
                ]
            ],
            [
                [
                    -0.006687164306640625,
                    0.01425933837890625,
                    0.0106658935546875
                ],
                [
                    0.0261993408203125,
                    0.01171875,
                    -0.0243682861328125
                ],
                [
                    0.045623779296875,
                    -0.0179595947265625,
                    -0.03948974609375
                ]
            ],
            [
                [
                    -0.145263671875,
                    -0.056732177734375,
                    -0.0119171142578125
                ],
                [
                    -0.149169921875,
                    -0.10723876953125,
                    -0.00699615478515625
                ],
                [
                    -0.142822265625,
                    -0.0648193359375,
                    -0.0013628005981445312
                ]
            ],
            [
                [
                    -0.0072174072265625,
                    0.00287628173828125,
                    0.02880859375
                ],
                [
                    -0.01995849609375,
                    -0.032684326171875,
                    0.0177764892578125
                ],
                [
                    -0.00945281982421875,
                    0.035888671875,
                    0.0936279296875
                ]
            ]
        ],
        [
            [
                [
                    -0.03271484375,
                    -0.0321044921875,
                    -0.07562255859375
                ],
                [
                    -0.0189971923828125,
                    0.034698486328125,
                    0.04046630859375
                ],
                [
                    -0.0093536376953125,
                    -0.0174713134765625,
                    0.01482391357421875
                ]
            ],
            [
                [
                    0.0406494140625,
                    0.04339599609375,
                    0.005115509033203125
                ],
                [
                    0.005725860595703125,
                    0.0770263671875,
                    0.06939697265625
                ],
                [
                    -0.031982421875,
                    -0.060638427734375,
                    0.0098114013671875
                ]
            ],
            [
                [
                    0.0139923095703125,
                    0.0175323486328125,
                    -0.03558349609375
                ],
                [
                    0.0010004043579101562,
                    -0.008758544921875,
                    0.04296875
                ],
                [
                    -0.07000732421875,
                    -0.02197265625,
                    0.0081939697265625
                ]
            ],
            [
                [
                    -0.01383209228515625,
                    -0.01494598388671875,
                    -0.0200653076171875
                ],
                [
                    -0.00939178466796875,
                    0.0078582763671875,
                    0.0004696846008300781
                ],
                [
                    -0.0076904296875,
                    0.0148773193359375,
                    -0.0274200439453125
                ]
            ],
            [
                [
                    0.0038852691650390625,
                    0.01227569580078125,
                    -0.0008902549743652344
                ],
                [
                    -0.0257110595703125,
                    -0.041839599609375,
                    -0.039520263671875
                ],
                [
                    -0.0268402099609375,
                    -0.0267181396484375,
                    -0.0582275390625
                ]
            ],
            [
                [
                    -0.01180267333984375,
                    -0.034332275390625,
                    -0.03173828125
                ],
                [
                    0.031707763671875,
                    0.0596923828125,
                    -0.044403076171875
                ],
                [
                    -0.041107177734375,
                    0.053802490234375,
                    0.0224761962890625
                ]
            ],
            [
                [
                    -0.0272064208984375,
                    -0.00977325439453125,
                    -0.0198974609375
                ],
                [
                    -0.05023193359375,
                    -0.06878662109375,
                    -0.06927490234375
                ],
                [
                    -0.019744873046875,
                    -0.07232666015625,
                    -0.05291748046875
                ]
            ],
            [
                [
                    0.0572509765625,
                    0.0897216796875,
                    -0.0380859375
                ],
                [
                    -0.1690673828125,
                    -0.16650390625,
                    0.11676025390625
                ],
                [
                    0.11517333984375,
                    0.033233642578125,
                    -0.038116455078125
                ]
            ],
            [
                [
                    -0.005481719970703125,
                    -0.01277923583984375,
                    -0.0159454345703125
                ],
                [
                    0.045654296875,
                    0.0204925537109375,
                    -0.0094757080078125
                ],
                [
                    0.003566741943359375,
                    0.024078369140625,
                    0.0299530029296875
                ]
            ],
            [
                [
                    -0.01233673095703125,
                    -0.12054443359375,
                    -0.0758056640625
                ],
                [
                    0.07635498046875,
                    0.173583984375,
                    -0.014923095703125
                ],
                [
                    -0.1253662109375,
                    -0.056640625,
                    0.041473388671875
                ]
            ],
            [
                [
                    0.017242431640625,
                    -0.0100555419921875,
                    -0.017547607421875
                ],
                [
                    -0.0186004638671875,
                    0.03790283203125,
                    -0.015777587890625
                ],
                [
                    -0.04205322265625,
                    -0.0295257568359375,
                    0.0030269622802734375
                ]
            ],
            [
                [
                    0.016204833984375,
                    0.056610107421875,
                    -0.0198211669921875
                ],
                [
                    -0.044921875,
                    -0.00684356689453125,
                    -0.02960205078125
                ],
                [
                    -0.07208251953125,
                    -0.0615234375,
                    0.01097869873046875
                ]
            ],
            [
                [
                    -0.01467132568359375,
                    0.0194091796875,
                    0.045989990234375
                ],
                [
                    -0.00429534912109375,
                    0.0121917724609375,
                    0.034088134765625
                ],
                [
                    -0.01493072509765625,
                    -0.055816650390625,
                    -0.050323486328125
                ]
            ],
            [
                [
                    0.0173187255859375,
                    -6.663799285888672e-05,
                    -0.033477783203125
                ],
                [
                    -0.000812530517578125,
                    -0.046722412109375,
                    0.045166015625
                ],
                [
                    -0.0216064453125,
                    -0.0311279296875,
                    0.021331787109375
                ]
            ],
            [
                [
                    -0.0256805419921875,
                    0.04156494140625,
                    0.001926422119140625
                ],
                [
                    -0.022552490234375,
                    0.01485443115234375,
                    0.01165008544921875
                ],
                [
                    0.0024394989013671875,
                    -0.027069091796875,
                    -0.0249481201171875
                ]
            ],
            [
                [
                    0.005687713623046875,
                    0.02044677734375,
                    -0.0084991455078125
                ],
                [
                    -0.056915283203125,
                    -0.023956298828125,
                    0.006855010986328125
                ],
                [
                    -0.0027332305908203125,
                    -0.0439453125,
                    -0.0186767578125
                ]
            ]
        ],
        [
            [
                [
                    -0.029296875,
                    -0.0015583038330078125,
                    -0.00708770751953125
                ],
                [
                    0.0340576171875,
                    -0.0273895263671875,
                    -0.058349609375
                ],
                [
                    0.01282501220703125,
                    -0.04681396484375,
                    -0.056671142578125
                ]
            ],
            [
                [
                    -0.005474090576171875,
                    0.042572021484375,
                    0.0377197265625
                ],
                [
                    0.0157928466796875,
                    0.04644775390625,
                    0.00299835205078125
                ],
                [
                    0.0193328857421875,
                    0.0015268325805664062,
                    -0.01325225830078125
                ]
            ],
            [
                [
                    -0.00853729248046875,
                    0.0032863616943359375,
                    0.0233612060546875
                ],
                [
                    0.01611328125,
                    -0.04925537109375,
                    -0.049652099609375
                ],
                [
                    0.00975799560546875,
                    -0.048126220703125,
                    -0.10906982421875
                ]
            ],
            [
                [
                    0.0020809173583984375,
                    0.034027099609375,
                    -0.025482177734375
                ],
                [
                    0.0069122314453125,
                    0.05596923828125,
                    -0.05291748046875
                ],
                [
                    -8.237361907958984e-05,
                    0.06488037109375,
                    -0.05535888671875
                ]
            ],
            [
                [
                    0.0303802490234375,
                    0.022674560546875,
                    0.0153656005859375
                ],
                [
                    0.0256500244140625,
                    0.0043487548828125,
                    0.011383056640625
                ],
                [
                    0.03173828125,
                    0.004909515380859375,
                    -0.0333251953125
                ]
            ],
            [
                [
                    -0.03863525390625,
                    0.006023406982421875,
                    0.00998687744140625
                ],
                [
                    -0.018707275390625,
                    0.061492919921875,
                    0.07763671875
                ],
                [
                    -0.004070281982421875,
                    0.06280517578125,
                    -0.0098419189453125
                ]
            ],
            [
                [
                    0.01461029052734375,
                    0.00946807861328125,
                    0.006717681884765625
                ],
                [
                    0.01511383056640625,
                    -0.00850677490234375,
                    -0.036224365234375
                ],
                [
                    0.00760650634765625,
                    -0.0135498046875,
                    -0.03594970703125
                ]
            ],
            [
                [
                    -0.0019350051879882812,
                    0.0121612548828125,
                    -0.0232696533203125
                ],
                [
                    0.03521728515625,
                    0.005725860595703125,
                    -0.07855224609375
                ],
                [
                    0.0204010009765625,
                    0.051910400390625,
                    -0.04718017578125
                ]
            ],
            [
                [
                    0.036651611328125,
                    0.07135009765625,
                    0.06732177734375
                ],
                [
                    0.08258056640625,
                    0.0826416015625,
                    0.0227508544921875
                ],
                [
                    0.0208587646484375,
                    0.002689361572265625,
                    -0.07794189453125
                ]
            ],
            [
                [
                    -0.012420654296875,
                    -0.019378662109375,
                    0.02362060546875
                ],
                [
                    -0.041290283203125,
                    -0.0628662109375,
                    0.0016183853149414062
                ],
                [
                    0.0081329345703125,
                    -0.032867431640625,
                    -0.0433349609375
                ]
            ],
            [
                [
                    0.0027618408203125,
                    -0.006870269775390625,
                    0.03240966796875
                ],
                [
                    0.0113525390625,
                    -0.08477783203125,
                    -0.0230255126953125
                ],
                [
                    -0.008941650390625,
                    -0.1048583984375,
                    -0.044464111328125
                ]
            ],
            [
                [
                    0.01114654541015625,
                    -0.006801605224609375,
                    -0.00994110107421875
                ],
                [
                    0.02154541015625,
                    -0.062255859375,
                    -0.07208251953125
                ],
                [
                    0.01215362548828125,
                    0.0011014938354492188,
                    -0.0226898193359375
                ]
            ],
            [
                [
                    -0.0511474609375,
                    -0.0211639404296875,
                    0.00757598876953125
                ],
                [
                    -0.0199127197265625,
                    -0.0278778076171875,
                    -0.0069427490234375
                ],
                [
                    -0.036041259765625,
                    -0.04376220703125,
                    -0.0389404296875
                ]
            ],
            [
                [
                    0.00707244873046875,
                    0.00865936279296875,
                    0.004070281982421875
                ],
                [
                    0.01016998291015625,
                    -0.0423583984375,
                    -0.016448974609375
                ],
                [
                    0.01543426513671875,
                    -0.035400390625,
                    -0.08465576171875
                ]
            ],
            [
                [
                    -0.032470703125,
                    0.0224609375,
                    0.00206756591796875
                ],
                [
                    0.018157958984375,
                    0.03961181640625,
                    0.05938720703125
                ],
                [
                    -0.0092010498046875,
                    -0.0137786865234375,
                    -0.047454833984375
                ]
            ],
            [
                [
                    -0.01082611083984375,
                    0.014984130859375,
                    -0.01349639892578125
                ],
                [
                    0.05169677734375,
                    -0.0018062591552734375,
                    -0.06854248046875
                ],
                [
                    -0.01666259765625,
                    -0.099365234375,
                    -0.09423828125
                ]
            ]
        ],
        [
            [
                [
                    0.0199432373046875,
                    0.022735595703125,
                    -0.0046844482421875
                ],
                [
                    0.0008344650268554688,
                    -0.00020301342010498047,
                    0.012451171875
                ],
                [
                    -0.00830078125,
                    -0.007350921630859375,
                    0.01221466064453125
                ]
            ],
            [
                [
                    -0.0117034912109375,
                    -0.013092041015625,
                    -0.005191802978515625
                ],
                [
                    0.019378662109375,
                    -0.0130615234375,
                    -0.0228424072265625
                ],
                [
                    -0.0243072509765625,
                    -0.01355743408203125,
                    -0.0496826171875
                ]
            ],
            [
                [
                    0.007381439208984375,
                    0.0105743408203125,
                    0.0083770751953125
                ],
                [
                    0.0146636962890625,
                    0.038726806640625,
                    0.028289794921875
                ],
                [
                    0.0254669189453125,
                    0.034088134765625,
                    0.0286865234375
                ]
            ],
            [
                [
                    0.04534912109375,
                    0.06494140625,
                    0.0038242340087890625
                ],
                [
                    0.12109375,
                    0.173828125,
                    0.03399658203125
                ],
                [
                    0.10028076171875,
                    0.1138916015625,
                    0.019378662109375
                ]
            ],
            [
                [
                    -0.0019083023071289062,
                    0.02008056640625,
                    0.022186279296875
                ],
                [
                    0.03125,
                    0.09442138671875,
                    0.034271240234375
                ],
                [
                    0.019866943359375,
                    0.046722412109375,
                    0.00905609130859375
                ]
            ],
            [
                [
                    -0.00957489013671875,
                    0.0115966796875,
                    0.003330230712890625
                ],
                [
                    -0.0214385986328125,
                    0.004913330078125,
                    -0.0198211669921875
                ],
                [
                    -0.038604736328125,
                    0.0207061767578125,
                    -0.02215576171875
                ]
            ],
            [
                [
                    0.00351715087890625,
                    0.04345703125,
                    0.0220794677734375
                ],
                [
                    0.0223236083984375,
                    0.0589599609375,
                    0.0122833251953125
                ],
                [
                    0.01161956787109375,
                    0.021728515625,
                    0.006336212158203125
                ]
            ],
            [
                [
                    -0.007663726806640625,
                    -0.0030879974365234375,
                    0.00818634033203125
                ],
                [
                    0.008392333984375,
                    0.01476287841796875,
                    0.0106048583984375
                ],
                [
                    0.0304412841796875,
                    0.03228759765625,
                    0.0141143798828125
                ]
            ],
            [
                [
                    -0.0340576171875,
                    -0.07208251953125,
                    -0.0760498046875
                ],
                [
                    0.005657196044921875,
                    -0.017822265625,
                    -0.07879638671875
                ],
                [
                    0.016448974609375,
                    -0.03985595703125,
                    -0.06475830078125
                ]
            ],
            [
                [
                    0.0099334716796875,
                    0.0050506591796875,
                    0.00103759765625
                ],
                [
                    0.0243988037109375,
                    0.0635986328125,
                    -0.00850677490234375
                ],
                [
                    -0.004055023193359375,
                    0.01561737060546875,
                    -0.01026153564453125
                ]
            ],
            [
                [
                    0.0218963623046875,
                    0.012939453125,
                    0.0115814208984375
                ],
                [
                    0.05126953125,
                    0.04425048828125,
                    0.026153564453125
                ],
                [
                    0.049072265625,
                    0.03485107421875,
                    0.003849029541015625
                ]
            ],
            [
                [
                    -0.00485992431640625,
                    0.035675048828125,
                    0.053985595703125
                ],
                [
                    0.0165252685546875,
                    0.0755615234375,
                    0.06939697265625
                ],
                [
                    0.0037174224853515625,
                    0.024871826171875,
                    0.0164794921875
                ]
            ],
            [
                [
                    0.06805419921875,
                    0.138427734375,
                    0.126220703125
                ],
                [
                    0.139404296875,
                    0.216796875,
                    0.2060546875
                ],
                [
                    0.074462890625,
                    0.159423828125,
                    0.1629638671875
                ]
            ],
            [
                [
                    0.0021381378173828125,
                    -0.01309967041015625,
                    0.01435089111328125
                ],
                [
                    0.0159454345703125,
                    0.086669921875,
                    0.05657958984375
                ],
                [
                    -0.0068359375,
                    0.04278564453125,
                    0.039794921875
                ]
            ],
            [
                [
                    -0.0894775390625,
                    -0.07073974609375,
                    -0.03704833984375
                ],
                [
                    -0.054351806640625,
                    -0.02032470703125,
                    0.0159149169921875
                ],
                [
                    -0.0848388671875,
                    -0.011993408203125,
                    0.0005002021789550781
                ]
            ],
            [
                [
                    -0.006374359130859375,
                    0.005512237548828125,
                    -0.038330078125
                ],
                [
                    -0.01230621337890625,
                    0.04534912109375,
                    -0.0291900634765625
                ],
                [
                    -0.036346435546875,
                    0.0027217864990234375,
                    -0.029296875
                ]
            ]
        ],
        [
            [
                [
                    -0.032135009765625,
                    -0.0640869140625,
                    -0.0292816162109375
                ],
                [
                    -0.002971649169921875,
                    -0.023223876953125,
                    0.049560546875
                ],
                [
                    0.0286407470703125,
                    0.07379150390625,
                    0.060943603515625
                ]
            ],
            [
                [
                    0.0108795166015625,
                    -0.0175018310546875,
                    -0.0253143310546875
                ],
                [
                    0.06427001953125,
                    0.032958984375,
                    -0.01505279541015625
                ],
                [
                    0.03857421875,
                    0.10943603515625,
                    0.12200927734375
                ]
            ],
            [
                [
                    0.028076171875,
                    -0.01360321044921875,
                    -0.00868988037109375
                ],
                [
                    0.015960693359375,
                    0.0217437744140625,
                    -0.03924560546875
                ],
                [
                    0.03363037109375,
                    0.036712646484375,
                    0.047760009765625
                ]
            ],
            [
                [
                    -0.0171051025390625,
                    0.022216796875,
                    0.0210418701171875
                ],
                [
                    -0.006381988525390625,
                    0.01059722900390625,
                    0.012908935546875
                ],
                [
                    0.014556884765625,
                    -0.00211334228515625,
                    0.0159149169921875
                ]
            ],
            [
                [
                    -0.00327301025390625,
                    -0.004962921142578125,
                    -0.00029397010803222656
                ],
                [
                    -0.033477783203125,
                    -0.019775390625,
                    0.03057861328125
                ],
                [
                    -0.0352783203125,
                    -0.051849365234375,
                    0.0187225341796875
                ]
            ],
            [
                [
                    0.0335693359375,
                    0.00830078125,
                    0.0021533966064453125
                ],
                [
                    0.01111602783203125,
                    -0.158203125,
                    -0.11968994140625
                ],
                [
                    -0.0189971923828125,
                    -0.0986328125,
                    -0.04864501953125
                ]
            ],
            [
                [
                    -0.0293121337890625,
                    -0.0274505615234375,
                    0.00879669189453125
                ],
                [
                    -0.06396484375,
                    -0.05535888671875,
                    0.0059356689453125
                ],
                [
                    -0.004177093505859375,
                    -0.0007367134094238281,
                    0.00974273681640625
                ]
            ],
            [
                [
                    0.0153350830078125,
                    0.030609130859375,
                    -0.042877197265625
                ],
                [
                    0.016571044921875,
                    0.0654296875,
                    0.052520751953125
                ],
                [
                    -0.0498046875,
                    -0.02252197265625,
                    0.037200927734375
                ]
            ],
            [
                [
                    -0.05316162109375,
                    -0.095458984375,
                    -0.046539306640625
                ],
                [
                    -0.05126953125,
                    -0.10968017578125,
                    -0.08563232421875
                ],
                [
                    0.072509765625,
                    0.059661865234375,
                    0.04132080078125
                ]
            ],
            [
                [
                    -0.0858154296875,
                    -0.14013671875,
                    -0.04718017578125
                ],
                [
                    0.006572723388671875,
                    -0.083984375,
                    -0.0380859375
                ],
                [
                    0.050994873046875,
                    0.13134765625,
                    0.049072265625
                ]
            ],
            [
                [
                    0.00847625732421875,
                    -0.00543975830078125,
                    -0.0096282958984375
                ],
                [
                    0.0021762847900390625,
                    -0.025634765625,
                    -0.0206451416015625
                ],
                [
                    0.0147247314453125,
                    0.040802001953125,
                    0.026397705078125
                ]
            ],
            [
                [
                    -0.02288818359375,
                    -0.0633544921875,
                    -0.051055908203125
                ],
                [
                    0.022308349609375,
                    0.059295654296875,
                    0.0076904296875
                ],
                [
                    0.018524169921875,
                    0.0276336669921875,
                    0.00902557373046875
                ]
            ],
            [
                [
                    0.00977325439453125,
                    0.00986480712890625,
                    0.0268402099609375
                ],
                [
                    -0.0382080078125,
                    -0.005100250244140625,
                    -0.0086669921875
                ],
                [
                    -0.0635986328125,
                    -0.0281524658203125,
                    -0.047576904296875
                ]
            ],
            [
                [
                    -0.00974273681640625,
                    -0.03216552734375,
                    -0.036102294921875
                ],
                [
                    -0.01201629638671875,
                    -0.013427734375,
                    0.003993988037109375
                ],
                [
                    0.0017747879028320312,
                    -0.04949951171875,
                    -0.037750244140625
                ]
            ],
            [
                [
                    -0.025787353515625,
                    -0.045684814453125,
                    -0.0762939453125
                ],
                [
                    -0.018524169921875,
                    -0.03289794921875,
                    -0.05889892578125
                ],
                [
                    -0.006122589111328125,
                    0.03594970703125,
                    0.05859375
                ]
            ],
            [
                [
                    -0.0029754638671875,
                    -0.0367431640625,
                    -0.05133056640625
                ],
                [
                    0.048126220703125,
                    0.120361328125,
                    0.12286376953125
                ],
                [
                    -0.017608642578125,
                    0.10418701171875,
                    0.140869140625
                ]
            ]
        ],
        [
            [
                [
                    -0.018096923828125,
                    0.1083984375,
                    0.061370849609375
                ],
                [
                    0.05108642578125,
                    -0.0301055908203125,
                    -0.1341552734375
                ],
                [
                    -0.02166748046875,
                    -0.0280914306640625,
                    0.08953857421875
                ]
            ],
            [
                [
                    -0.0020961761474609375,
                    0.05596923828125,
                    0.030487060546875
                ],
                [
                    0.045623779296875,
                    0.02667236328125,
                    -0.00511932373046875
                ],
                [
                    0.010711669921875,
                    -0.0149383544921875,
                    -0.007198333740234375
                ]
            ],
            [
                [
                    -0.035369873046875,
                    -0.0535888671875,
                    -0.01454925537109375
                ],
                [
                    -0.01203155517578125,
                    -0.0107421875,
                    -0.01172637939453125
                ],
                [
                    -0.01412200927734375,
                    -0.0221710205078125,
                    -0.01189422607421875
                ]
            ],
            [
                [
                    -0.00830841064453125,
                    -0.007965087890625,
                    -0.0362548828125
                ],
                [
                    0.0274810791015625,
                    -0.032196044921875,
                    0.003063201904296875
                ],
                [
                    -0.013641357421875,
                    0.0128021240234375,
                    0.08233642578125
                ]
            ],
            [
                [
                    -0.0225067138671875,
                    -0.03765869140625,
                    -0.00952911376953125
                ],
                [
                    -0.045654296875,
                    0.005947113037109375,
                    -0.004741668701171875
                ],
                [
                    0.022705078125,
                    0.0200042724609375,
                    0.0211944580078125
                ]
            ],
            [
                [
                    -0.047454833984375,
                    -0.174560546875,
                    -0.057159423828125
                ],
                [
                    -0.1290283203125,
                    0.052764892578125,
                    0.1363525390625
                ],
                [
                    0.07965087890625,
                    0.10009765625,
                    -0.0694580078125
                ]
            ],
            [
                [
                    -0.003864288330078125,
                    0.0214385986328125,
                    -0.004283905029296875
                ],
                [
                    0.014862060546875,
                    0.0771484375,
                    0.03460693359375
                ],
                [
                    0.01454925537109375,
                    0.0096893310546875,
                    -0.004863739013671875
                ]
            ],
            [
                [
                    0.07025146484375,
                    0.1033935546875,
                    0.0328369140625
                ],
                [
                    -0.0130767822265625,
                    -0.0726318359375,
                    -0.048858642578125
                ],
                [
                    -0.01108551025390625,
                    0.03497314453125,
                    0.044952392578125
                ]
            ],
            [
                [
                    -0.0635986328125,
                    -0.052764892578125,
                    -0.022735595703125
                ],
                [
                    -0.01512908935546875,
                    0.0738525390625,
                    0.0677490234375
                ],
                [
                    0.0210723876953125,
                    0.03741455078125,
                    -0.0037288665771484375
                ]
            ],
            [
                [
                    -0.1229248046875,
                    -0.08416748046875,
                    -0.0063018798828125
                ],
                [
                    0.1265869140625,
                    0.15087890625,
                    0.028656005859375
                ],
                [
                    -0.0604248046875,
                    -0.089599609375,
                    -0.02093505859375
                ]
            ],
            [
                [
                    -0.04583740234375,
                    -0.0360107421875,
                    -0.002597808837890625
                ],
                [
                    -0.02886962890625,
                    -0.0215606689453125,
                    -0.00716400146484375
                ],
                [
                    -0.0187530517578125,
                    0.005268096923828125,
                    -0.0162811279296875
                ]
            ],
            [
                [
                    0.03387451171875,
                    0.060577392578125,
                    0.0311279296875
                ],
                [
                    -0.0450439453125,
                    0.033233642578125,
                    0.0203704833984375
                ],
                [
                    0.0079345703125,
                    -0.02056884765625,
                    -0.0285186767578125
                ]
            ],
            [
                [
                    0.02691650390625,
                    0.0083160400390625,
                    -0.036651611328125
                ],
                [
                    0.0234832763671875,
                    -0.0275421142578125,
                    -0.00278472900390625
                ],
                [
                    0.007526397705078125,
                    -0.0240478515625,
                    0.00543212890625
                ]
            ],
            [
                [
                    0.004268646240234375,
                    0.0360107421875,
                    0.0116729736328125
                ],
                [
                    -0.00531768798828125,
                    -0.02569580078125,
                    0.00522613525390625
                ],
                [
                    -0.0012226104736328125,
                    0.00649261474609375,
                    0.0038356781005859375
                ]
            ],
            [
                [
                    -0.08612060546875,
                    -0.0908203125,
                    -0.006916046142578125
                ],
                [
                    0.0253143310546875,
                    0.10833740234375,
                    0.04425048828125
                ],
                [
                    0.02972412109375,
                    -0.0174560546875,
                    -0.019805908203125
                ]
            ],
            [
                [
                    -0.01287078857421875,
                    0.04833984375,
                    0.00458526611328125
                ],
                [
                    0.0399169921875,
                    0.030303955078125,
                    -0.06573486328125
                ],
                [
                    -0.01064300537109375,
                    -0.07757568359375,
                    -0.055633544921875
                ]
            ]
        ],
        [
            [
                [
                    0.00901031494140625,
                    0.01922607421875,
                    -0.03778076171875
                ],
                [
                    -0.0111236572265625,
                    0.1363525390625,
                    0.024658203125
                ],
                [
                    -0.07342529296875,
                    0.0516357421875,
                    0.037109375
                ]
            ],
            [
                [
                    0.02911376953125,
                    0.02099609375,
                    -0.0051727294921875
                ],
                [
                    -0.0251312255859375,
                    0.06280517578125,
                    -0.0205230712890625
                ],
                [
                    -0.037841796875,
                    -0.035247802734375,
                    0.0233154296875
                ]
            ],
            [
                [
                    0.0266876220703125,
                    -0.00864410400390625,
                    -0.007587432861328125
                ],
                [
                    0.072509765625,
                    0.005802154541015625,
                    0.0104827880859375
                ],
                [
                    0.01517486572265625,
                    0.0285491943359375,
                    -0.0211944580078125
                ]
            ],
            [
                [
                    0.0190887451171875,
                    -0.00762939453125,
                    -0.01329803466796875
                ],
                [
                    0.0311737060546875,
                    -0.006134033203125,
                    0.00501251220703125
                ],
                [
                    0.06585693359375,
                    -0.015533447265625,
                    0.0021381378173828125
                ]
            ],
            [
                [
                    -0.018524169921875,
                    -0.00957489013671875,
                    -0.001377105712890625
                ],
                [
                    -0.011688232421875,
                    -0.022705078125,
                    0.004192352294921875
                ],
                [
                    -0.0223541259765625,
                    -0.0274658203125,
                    -0.00047898292541503906
                ]
            ],
            [
                [
                    -0.00734710693359375,
                    -0.0052337646484375,
                    -0.022430419921875
                ],
                [
                    -0.018707275390625,
                    0.0927734375,
                    -0.033599853515625
                ],
                [
                    -0.062744140625,
                    0.036712646484375,
                    -0.00231170654296875
                ]
            ],
            [
                [
                    0.0325927734375,
                    -0.01387786865234375,
                    0.0148773193359375
                ],
                [
                    0.0033969879150390625,
                    -0.0282135009765625,
                    0.0280914306640625
                ],
                [
                    0.01161956787109375,
                    -0.044158935546875,
                    -0.01065826416015625
                ]
            ],
            [
                [
                    -0.06011962890625,
                    0.11212158203125,
                    -0.03948974609375
                ],
                [
                    -0.12322998046875,
                    -0.0157623291015625,
                    0.09466552734375
                ],
                [
                    0.1612548828125,
                    -0.1719970703125,
                    0.0301361083984375
                ]
            ],
            [
                [
                    0.059356689453125,
                    -0.044708251953125,
                    0.00516510009765625
                ],
                [
                    0.033416748046875,
                    -0.0240631103515625,
                    -0.01493072509765625
                ],
                [
                    0.0162506103515625,
                    0.0069122314453125,
                    0.03997802734375
                ]
            ],
            [
                [
                    0.05755615234375,
                    -0.144287109375,
                    0.041412353515625
                ],
                [
                    0.1466064453125,
                    -0.0120086669921875,
                    -0.05133056640625
                ],
                [
                    -0.03192138671875,
                    0.06182861328125,
                    -0.029541015625
                ]
            ],
            [
                [
                    0.021697998046875,
                    -0.044189453125,
                    0.007122039794921875
                ],
                [
                    0.01678466796875,
                    0.01323699951171875,
                    -0.0261688232421875
                ],
                [
                    0.034332275390625,
                    -0.0226287841796875,
                    -0.01351165771484375
                ]
            ],
            [
                [
                    -0.032379150390625,
                    0.0258331298828125,
                    -0.00157928466796875
                ],
                [
                    0.01171112060546875,
                    -0.0020580291748046875,
                    -0.039703369140625
                ],
                [
                    -0.0416259765625,
                    0.046173095703125,
                    0.028900146484375
                ]
            ],
            [
                [
                    -0.0090179443359375,
                    0.006992340087890625,
                    0.038116455078125
                ],
                [
                    -0.001743316650390625,
                    -0.01535797119140625,
                    -0.00583648681640625
                ],
                [
                    0.007541656494140625,
                    0.0181732177734375,
                    -0.0220184326171875
                ]
            ],
            [
                [
                    -0.011505126953125,
                    -0.0022602081298828125,
                    -0.00738525390625
                ],
                [
                    -0.0428466796875,
                    -0.044097900390625,
                    -0.0006546974182128906
                ],
                [
                    -0.01617431640625,
                    0.025482177734375,
                    -0.0244903564453125
                ]
            ],
            [
                [
                    -0.0144500732421875,
                    0.0755615234375,
                    -0.01497650146484375
                ],
                [
                    -0.050811767578125,
                    0.04364013671875,
                    -0.012542724609375
                ],
                [
                    -0.0282440185546875,
                    -0.01108551025390625,
                    -0.0200042724609375
                ]
            ],
            [
                [
                    -0.03155517578125,
                    0.035064697265625,
                    0.0272674560546875
                ],
                [
                    -0.054779052734375,
                    0.036041259765625,
                    0.01505279541015625
                ],
                [
                    -0.0306549072265625,
                    -0.0093994140625,
                    -0.0295257568359375
                ]
            ]
        ],
        [
            [
                [
                    0.0237274169921875,
                    0.017333984375,
                    0.033905029296875
                ],
                [
                    0.0023632049560546875,
                    -0.038604736328125,
                    -0.0736083984375
                ],
                [
                    -0.0164794921875,
                    -0.0439453125,
                    -0.034027099609375
                ]
            ],
            [
                [
                    0.0229339599609375,
                    0.02801513671875,
                    -0.0037479400634765625
                ],
                [
                    -0.013946533203125,
                    -0.01354217529296875,
                    -0.02630615234375
                ],
                [
                    -0.04400634765625,
                    -0.06341552734375,
                    -0.07257080078125
                ]
            ],
            [
                [
                    0.035614013671875,
                    0.042510986328125,
                    0.0162811279296875
                ],
                [
                    0.0254974365234375,
                    -0.002819061279296875,
                    -0.0019054412841796875
                ],
                [
                    -0.006603240966796875,
                    -0.08575439453125,
                    -0.05023193359375
                ]
            ],
            [
                [
                    -0.006683349609375,
                    0.0101318359375,
                    -0.021484375
                ],
                [
                    -0.0016584396362304688,
                    0.039031982421875,
                    0.023712158203125
                ],
                [
                    -0.031646728515625,
                    0.0268707275390625,
                    -0.027984619140625
                ]
            ],
            [
                [
                    0.0323486328125,
                    0.0274658203125,
                    -0.0067901611328125
                ],
                [
                    0.005626678466796875,
                    0.006622314453125,
                    0.0269012451171875
                ],
                [
                    0.00539398193359375,
                    0.00913238525390625,
                    0.005939483642578125
                ]
            ],
            [
                [
                    0.0177154541015625,
                    0.046661376953125,
                    0.007537841796875
                ],
                [
                    0.06109619140625,
                    0.0780029296875,
                    0.0166778564453125
                ],
                [
                    0.087646484375,
                    0.09722900390625,
                    0.004604339599609375
                ]
            ],
            [
                [
                    0.0258331298828125,
                    0.0205230712890625,
                    0.0224151611328125
                ],
                [
                    0.00875091552734375,
                    0.021209716796875,
                    0.020294189453125
                ],
                [
                    -0.01175689697265625,
                    -0.0021800994873046875,
                    0.00769805908203125
                ]
            ],
            [
                [
                    0.022918701171875,
                    0.04925537109375,
                    0.00997161865234375
                ],
                [
                    -0.05743408203125,
                    -0.0938720703125,
                    -0.056884765625
                ],
                [
                    -0.033447265625,
                    -0.048736572265625,
                    -0.023162841796875
                ]
            ],
            [
                [
                    0.037109375,
                    0.055633544921875,
                    0.051849365234375
                ],
                [
                    0.047515869140625,
                    0.051605224609375,
                    0.03289794921875
                ],
                [
                    0.00533294677734375,
                    0.0004413127899169922,
                    -0.0013723373413085938
                ]
            ],
            [
                [
                    0.040374755859375,
                    0.05126953125,
                    0.014678955078125
                ],
                [
                    0.0284576416015625,
                    0.06365966796875,
                    0.0362548828125
                ],
                [
                    -0.0265350341796875,
                    -0.0592041015625,
                    -0.04443359375
                ]
            ],
            [
                [
                    0.032989501953125,
                    0.023590087890625,
                    0.01447296142578125
                ],
                [
                    -0.004192352294921875,
                    -0.01537322998046875,
                    0.007526397705078125
                ],
                [
                    -0.03863525390625,
                    -0.085205078125,
                    -0.0270233154296875
                ]
            ],
            [
                [
                    0.017852783203125,
                    0.0165557861328125,
                    0.0238800048828125
                ],
                [
                    0.041656494140625,
                    0.08880615234375,
                    0.0276031494140625
                ],
                [
                    0.0155487060546875,
                    0.006458282470703125,
                    0.0007576942443847656
                ]
            ],
            [
                [
                    -0.0142364501953125,
                    -0.006557464599609375,
                    0.0011529922485351562
                ],
                [
                    -0.00600433349609375,
                    -0.0225067138671875,
                    -0.0091705322265625
                ],
                [
                    0.0115966796875,
                    -0.018341064453125,
                    -0.0284881591796875
                ]
            ],
            [
                [
                    -0.00604248046875,
                    0.0148773193359375,
                    -0.00868988037109375
                ],
                [
                    0.013885498046875,
                    0.04364013671875,
                    0.0369873046875
                ],
                [
                    0.046478271484375,
                    0.0799560546875,
                    0.0482177734375
                ]
            ],
            [
                [
                    0.042816162109375,
                    0.0643310546875,
                    0.0638427734375
                ],
                [
                    -0.0221099853515625,
                    0.023590087890625,
                    0.00589752197265625
                ],
                [
                    -0.0673828125,
                    -0.061004638671875,
                    -0.022857666015625
                ]
            ],
            [
                [
                    -0.0179290771484375,
                    -0.01328277587890625,
                    -0.045745849609375
                ],
                [
                    -0.08502197265625,
                    -0.07464599609375,
                    -0.0859375
                ],
                [
                    -0.06427001953125,
                    -0.07177734375,
                    -0.08868408203125
                ]
            ]
        ],
        [
            [
                [
                    -0.10369873046875,
                    0.1295166015625,
                    -0.039031982421875
                ],
                [
                    -0.0567626953125,
                    0.207275390625,
                    -0.192138671875
                ],
                [
                    0.05413818359375,
                    0.0101470947265625,
                    -0.10626220703125
                ]
            ],
            [
                [
                    0.00635528564453125,
                    0.03302001953125,
